%YAML:1.0
---
opencv_ml_svm:
   format: 3
   svmType: C_SVC
   kernel:
      type: LINEAR
   C: 50.
   term_criteria: { iterations:100 }
   var_count: 4
   class_count: 8
   class_labels: !!opencv-matrix
      rows: 8
      cols: 1
      dt: i
      data: [ 1, 2, 3, 4, 5, 6, 7, 8 ]
   sv_total: 28
   support_vectors:
      - [ -1.52204723e+01, 3.42751813e+00, -6.20421457e+00,
          1.09155983e-01 ]
      - [ 1.62455082e+00, -3.20179522e-01, 1.72481388e-02,
          -1.23194829e-01 ]
      - [ 6.06380582e-01, -6.46705031e-02, 4.12091702e-01,
          -2.20873039e-02 ]
      - [ 4.45417732e-01, -2.83767194e-01, 2.90780813e-01,
          -1.38219610e-01 ]
      - [ 5.79388380e-01, -2.46464893e-01, 5.14409006e-01,
          -1.25510916e-01 ]
      - [ 2.12698981e-01, -2.45301425e-01, 1.40834585e-01,
          -2.45045602e-01 ]
      - [ 4.88870025e-01, -2.69844621e-01, 3.26444954e-01,
          -1.05478659e-01 ]
      - [ 1.32087004e+00, -2.83597112e-01, 5.54027498e-01,
          -1.08406395e-01 ]
      - [ 4.71716315e-01, -5.04043102e-02, 4.12975281e-01,
          -1.65182985e-02 ]
      - [ 3.73522371e-01, -2.26321265e-01, 3.14891577e-01,
          -1.09353751e-01 ]
      - [ 4.37284619e-01, -1.75154194e-01, 4.90908980e-01,
          -8.77333134e-02 ]
      - [ 2.00291201e-01, -2.20306620e-01, 1.70892164e-01,
          -2.14455113e-01 ]
      - [ 4.00936037e-01, -2.10602477e-01, 3.45263779e-01,
          -8.16079006e-02 ]
      - [ -8.15864205e-02, -3.75609566e-03, 1.23870671e+00,
          4.14097458e-01 ]
      - [ 8.92768204e-02, -1.33245564e+00, 0., -6.20738328e-01 ]
      - [ -1.33982015e+00, -2.11989856e+00, 9.00992334e-01,
          -1.05442286e+00 ]
      - [ 8.19101091e-03, -4.04990196e-01, 1.30545916e-02,
          -4.01949078e-01 ]
      - [ 1.07593231e-01, -1.81632566e+00, 3.41083668e-03,
          -5.98405838e-01 ]
      - [ 9.37018618e-02, -1.34467673e+00, 0., -6.47312105e-01 ]
      - [ -1.60394895e+00, -2.06917906e+00, 1.66533454e-16,
          -1.07863164e+00 ]
      - [ 6.71149464e-04, -4.04070169e-01, 0., -4.06063676e-01 ]
      - [ 1.13169812e-01, -1.84723246e+00, 0., -6.37564957e-01 ]
      - [ -1.86005735e+00, 2.25450516e+00, 1.77635684e-15,
          1.07676291e+00 ]
      - [ -4.79597859e-02, -1.00153196e+00, 2.22044605e-16,
          -1.08740187e+00 ]
      - [ -2.53803515e+00, 1.14936323e+01, -2.84217094e-14,
          1.33114166e+01 ]
      - [ 9.51218754e-02, -4.95991409e-01, -6.24500451e-17,
          -5.39765835e-01 ]
      - [ 3.86322236e+00, -3.17568135e+00, 0., -2.91242182e-01 ]
      - [ 1.64433699e-02, 6.03733599e-01, 0., 6.55629039e-01 ]
   uncompressed_sv_total: 58
   uncompressed_support_vectors:
      - [ 1.60987675e+00, -9.31232929e-01, 1.35243106e+00,
          -6.33071542e-01 ]
      - [ 1.62562168e+00, -9.46124017e-01, 1.28574538e+00,
          -6.35930598e-01 ]
      - [ 1.63721490e+00, -9.53312874e-01, 1.27707922e+00,
          -6.35113597e-01 ]
      - [ 1.59095669e+00, -9.53312874e-01, 1.46168876e+00,
          -6.35233462e-01 ]
      - [ 1.60507405e+00, -9.39471722e-01, 1.61043584e+00,
          -6.35443330e-01 ]
      - [ 1.62084854e+00, -9.34641242e-01, 1.67186785e+00,
          -6.35563016e-01 ]
      - [ 1.61435735e+00, -9.32704926e-01, 1.48131549e+00,
          -6.33980393e-01 ]
      - [ 1.53274107e+00, -9.25630569e-01, 9.58093882e-01,
          -6.33275568e-01 ]
      - [ 1.57960987e+00, -9.39675272e-01, 1.42819667e+00,
          -6.34107471e-01 ]
      - [ 1.58785057e+00, -9.38935220e-01, 1.38381135e+00,
          -6.32725894e-01 ]
      - [ 1.55152547e+00, -9.30912971e-01, 7.72252679e-01,
          -6.33805156e-01 ]
      - [ 1.69786882e+00, -9.47004259e-01, 1.33851862e+00,
          -6.35781705e-01 ]
      - [ 1.62633300e+00, -9.53312874e-01, 1.59838748e+00,
          -6.32492900e-01 ]
      - [ 1.55733609e+00, -9.53312814e-01, 1.58400452e+00,
          -6.35564268e-01 ]
      - [ 1.60090756e+00, -9.44480896e-01, 1.54456604e+00,
          -6.35818124e-01 ]
      - [ 1.70694757e+00, -9.47004259e-01, 1.37019897e+00,
          -6.35219336e-01 ]
      - [ 1.67512000e+00, -9.53312874e-01, 1.48269689e+00,
          -6.35203004e-01 ]
      - [ 1.69786882e+00, -9.47004259e-01, 1.40640497e+00,
          -6.34980321e-01 ]
      - [ 1.62633300e+00, -9.53312874e-01, 1.50405526e+00,
          -6.33613765e-01 ]
      - [ 3.54315311e-01, -6.93376958e-01, 9.45582330e-01,
          -5.43911815e-01 ]
      - [ 3.36470872e-01, -6.36833668e-01, 1.02561998e+00,
          -5.25479496e-01 ]
      - [ 3.43409151e-01, -6.81557000e-01, 9.31061625e-01,
          -5.43423831e-01 ]
      - [ -7.34270215e-01, -7.02137768e-01, -7.47856200e-01,
          -5.51181018e-01 ]
      - [ -7.51105905e-01, -6.94727540e-01, -7.47856200e-01,
          -5.42552829e-01 ]
      - [ 2.53738850e-01, -6.37004852e-01, 1.00679791e+00,
          -5.27084351e-01 ]
      - [ 3.27832222e-01, -6.98447227e-01, 1.05556250e+00,
          -5.34694195e-01 ]
      - [ 2.85689622e-01, -6.37004852e-01, 9.94942188e-01,
          -5.22981167e-01 ]
      - [ 3.22941214e-01, -6.81200862e-01, 1.07614422e+00,
          -5.34225762e-01 ]
      - [ -7.20905125e-01, -6.84472799e-01, -7.47856200e-01,
          -5.55780113e-01 ]
      - [ -7.47046769e-01, -7.06844568e-01, -7.47856200e-01,
          -5.48878372e-01 ]
      - [ -7.11231172e-01, -7.20605135e-01, -7.47856200e-01,
          -5.59116721e-01 ]
      - [ -7.49623120e-01, -6.68715119e-01, -7.47856200e-01,
          -5.49111724e-01 ]
      - [ -6.85268998e-01, -6.92358792e-01, -7.47856200e-01,
          -5.52330315e-01 ]
      - [ -6.90885901e-01, -6.87058866e-01, -7.47856200e-01,
          -5.52766442e-01 ]
      - [ -7.43067741e-01, -7.01313496e-01, -7.47856200e-01,
          -5.47007680e-01 ]
      - [ -7.99513221e-01, 1.08086300e+00, -7.47856200e-01,
          7.45194614e-01 ]
      - [ -8.40502441e-01, 6.05130017e-01, -7.47856200e-01,
          3.12344115e-02 ]
      - [ -8.35573018e-01, 5.91273725e-01, -7.47856200e-01,
          2.94030048e-02 ]
      - [ -8.33437085e-01, 5.34064531e-01, -7.47856200e-01,
          2.98927240e-02 ]
      - [ -8.41984212e-01, 6.17573738e-01, -7.47856200e-01,
          -3.65976617e-03 ]
      - [ -7.76975632e-01, 5.52530944e-01, -7.47856200e-01,
          8.87626559e-02 ]
      - [ -8.35783958e-01, 5.60193062e-01, -7.47856200e-01,
          5.13358265e-02 ]
      - [ -1.60601258e-01, -2.02594742e-01, -7.47856200e-01,
          -2.62913018e-01 ]
      - [ -2.90269852e-01, -1.71314865e-01, -7.47856200e-01,
          -2.83661336e-01 ]
      - [ -4.06554133e-01, 8.35246220e-02, -7.47856200e-01,
          -1.46774665e-01 ]
      - [ -3.74641746e-01, -1.02526091e-01, -7.47856200e-01,
          -2.90158719e-01 ]
      - [ -4.61782396e-01, 2.55644731e-02, -7.47856200e-01,
          -2.47361377e-01 ]
      - [ -7.53713489e-01, 1.79391956e+00, -7.47856200e-01,
          1.92567253e+00 ]
      - [ -7.57236719e-01, 2.15848827e+00, -7.47856200e-01,
          1.59004927e+00 ]
      - [ -7.41457880e-01, 1.69392550e+00, -7.47856200e-01,
          2.03640866e+00 ]
      - [ -7.24924564e-01, 3.25633377e-01, -7.47856200e-01,
          -1.42637998e-01 ]
      - [ -8.23449135e-01, 5.78825355e-01, -7.47856200e-01,
          -2.74879150e-02 ]
      - [ -7.74869204e-01, 5.44726431e-01, -7.47856200e-01,
          -5.43440320e-02 ]
      - [ -8.08695495e-01, 2.95503289e-01, -7.47856200e-01,
          -2.16315582e-01 ]
      - [ -8.16673517e-01, 4.89801943e-01, -7.47856200e-01,
          -1.48897227e-02 ]
      - [ -8.16673517e-01, 4.89801943e-01, -7.47856200e-01,
          -1.48897227e-02 ]
      - [ -8.40489388e-01, 5.44141650e-01, -7.47856200e-01,
          -6.15109131e-02 ]
      - [ -7.97640502e-01, 5.37179410e-01, -7.47856200e-01,
          3.35335732e-02 ]
   decision_functions:
      -
         sv_count: 1
         rho: -3.7027856207932459e+01
         alpha: [ 1. ]
         index: [ 0 ]
      -
         sv_count: 1
         rho: 1.8809253217206883e+00
         alpha: [ 1. ]
         index: [ 1 ]
      -
         sv_count: 1
         rho: 3.3325550353868100e-01
         alpha: [ 1. ]
         index: [ 2 ]
      -
         sv_count: 1
         rho: 2.6740012240452760e-01
         alpha: [ 1. ]
         index: [ 3 ]
      -
         sv_count: 1
         rho: 6.0517645659711361e-01
         alpha: [ 1. ]
         index: [ 4 ]
      -
         sv_count: 1
         rho: -1.7756674224386435e-01
         alpha: [ 1. ]
         index: [ 5 ]
      -
         sv_count: 1
         rho: 3.2864707550213712e-01
         alpha: [ 1. ]
         index: [ 6 ]
      -
         sv_count: 1
         rho: 2.2738766705854689e+00
         alpha: [ 1. ]
         index: [ 7 ]
      -
         sv_count: 1
         rho: 4.1192270040053125e-01
         alpha: [ 1. ]
         index: [ 8 ]
      -
         sv_count: 1
         rho: 3.3953256384420405e-01
         alpha: [ 1. ]
         index: [ 9 ]
      -
         sv_count: 1
         rho: 6.2119376690939243e-01
         alpha: [ 1. ]
         index: [ 10 ]
      -
         sv_count: 1
         rho: -8.6456886688953308e-02
         alpha: [ 1. ]
         index: [ 11 ]
      -
         sv_count: 1
         rho: 3.9420510404013326e-01
         alpha: [ 1. ]
         index: [ 12 ]
      -
         sv_count: 1
         rho: -9.3692642946576171e-02
         alpha: [ 1. ]
         index: [ 13 ]
      -
         sv_count: 1
         rho: 1.9542053056343767e-01
         alpha: [ 1. ]
         index: [ 14 ]
      -
         sv_count: 1
         rho: 1.3773657423020798e+00
         alpha: [ 1. ]
         index: [ 15 ]
      -
         sv_count: 1
         rho: -5.1647885314467989e-01
         alpha: [ 1. ]
         index: [ 16 ]
      -
         sv_count: 1
         rho: 5.0315332436288263e-01
         alpha: [ 1. ]
         index: [ 17 ]
      -
         sv_count: 1
         rho: 1.8441134581731922e-01
         alpha: [ 1. ]
         index: [ 18 ]
      -
         sv_count: 1
         rho: 2.1260253558404631e+00
         alpha: [ 1. ]
         index: [ 19 ]
      -
         sv_count: 1
         rho: -5.0732096187194298e-01
         alpha: [ 1. ]
         index: [ 20 ]
      -
         sv_count: 1
         rho: 5.0053206607325418e-01
         alpha: [ 1. ]
         index: [ 21 ]
      -
         sv_count: 1
         rho: 1.7864794278018838e+00
         alpha: [ 1. ]
         index: [ 22 ]
      -
         sv_count: 1
         rho: -2.8545003780649143e+00
         alpha: [ 1. ]
         index: [ 23 ]
      -
         sv_count: 1
         rho: 8.5041298936876757e+00
         alpha: [ 1. ]
         index: [ 24 ]
      -
         sv_count: 1
         rho: -1.0008757509914403e+00
         alpha: [ 1. ]
         index: [ 25 ]
      -
         sv_count: 1
         rho: -2.7931102738450995e+00
         alpha: [ 1. ]
         index: [ 26 ]
      -
         sv_count: 1
         rho: 1.3331829318589701e+00
         alpha: [ 1. ]
         index: [ 27 ]
