%YAML:1.0
---
opencv_ml_svm:
   format: 3
   svmType: C_SVC
   kernel:
      type: LINEAR
   C: 50.
   term_criteria: { epsilon:1.1920928955078125e-07, iterations:1000 }
   var_count: 3
   class_count: 8
   class_labels: !!opencv-matrix
      rows: 8
      cols: 1
      dt: i
      data: [ 1, 2, 3, 4, 5, 6, 7, 8 ]
   sv_total: 28
   support_vectors:
      - [ -1.24095539e-02, 4.28210251e-06, -3.98614706e-04 ]
      - [ -1.21388277e-02, -6.83189282e-05, -4.08446835e-03 ]
      - [ 8.43433477e-03, -1.01461912e-04, -1.40978945e-02 ]
      - [ -2.88682454e-03, -2.43279155e-05, -1.08870130e-03 ]
      - [ 3.70596477e-04, -1.18983665e-03, -2.83005778e-02 ]
      - [ -3.16167693e-03, -5.28070341e-05, -1.38991454e-03 ]
      - [ -1.97187113e-03, -9.60108719e-06, -5.77974599e-04 ]
      - [ 5.44381700e-03, -1.04991125e-03, -5.17187193e-02 ]
      - [ 6.14336273e-03, -1.76500325e-05, -1.92301115e-03 ]
      - [ -3.78017779e-03, -4.74627413e-05, -2.02007079e-03 ]
      - [ 1.68239081e-03, -1.16860343e-03, -2.91195717e-02 ]
      - [ -4.12167888e-03, -1.09596469e-04, -2.75803683e-03 ]
      - [ -2.39805272e-03, -1.49374473e-05, -8.59716791e-04 ]
      - [ 6.85661426e-03, 8.86818441e-07, -1.16535299e-03 ]
      - [ -4.09972947e-03, -4.21478398e-05, -1.73777039e-03 ]
      - [ 5.05782524e-03, -7.08414614e-03, -8.82434621e-02 ]
      - [ -4.62064380e-03, -1.09580709e-04, -2.46167998e-03 ]
      - [ -2.47979257e-03, -1.23407381e-05, -7.37273658e-04 ]
      - [ -2.61416240e-03, -1.52016528e-05, -4.60632145e-04 ]
      - [ -2.26575416e-02, -7.02359190e-04, 8.19186866e-03 ]
      - [ -2.88605341e-03, -3.49356960e-05, -5.85503120e-04 ]
      - [ -1.82082294e-03, -6.38670781e-06, -2.99268286e-04 ]
      - [ 4.23490256e-03, 2.58317359e-05, 1.53358059e-03 ]
      - [ -5.42913238e-03, -1.16667256e-01, 4.15945463e-02 ]
      - [ -1.88398901e-02, 1.16346076e-01, 7.67927766e-02 ]
      - [ -4.85453289e-03, -8.95127814e-05, -2.21309531e-03 ]
      - [ -2.51038885e-03, -6.68266193e-06, -6.61210855e-04 ]
      - [ -1.53854797e-02, 6.32027071e-03, -5.20702340e-02 ]
   uncompressed_sv_total: 28
   uncompressed_support_vectors:
      - [ 832., 1.05555546e+00, 1.11396965e+02 ]
      - [ 759., 1.10000002e+00, 1.04911690e+02 ]
      - [ 9.95500000e+02, 1.02857149e+00, 1.17982758e+02 ]
      - [ 1027., 1., 1.20225395e+02 ]
      - [ 1.01450000e+03, 1., 1.19982758e+02 ]
      - [ 993., 1., 1.16568542e+02 ]
      - [ 980., 1.88851905e+00, 1.61195953e+02 ]
      - [ 1025., 1.91562235e+00, 1.64852814e+02 ]
      - [ 1.01250000e+03, 1.93333316e+00, 1.65923874e+02 ]
      - [ 9.98500000e+02, 1.79411757e+00, 1.56953323e+02 ]
      - [ 6.96500000e+02, 1.85185182e+00, 2.09379730e+02 ]
      - [ 1.43850000e+03, 6.16666651e+00, 3.40124878e+02 ]
      - [ 1.54250000e+03, 6.29166651e+00, 3.40811188e+02 ]
      - [ 1817., 5.73951149e+00, 3.80107635e+02 ]
      - [ 1.70050000e+03, 5.64383507e+00, 3.61889404e+02 ]
      - [ 1736., 6.31885052e+00, 3.66014282e+02 ]
      - [ 905., 3.69587636e+00, 1.82911682e+02 ]
      - [ 7.74500000e+02, 4.26976728e+00, 1.81178711e+02 ]
      - [ 969., 4.23076963e+00, 1.85906631e+02 ]
      - [ 1021., 3.62003183e+00, 1.88936066e+02 ]
      - [ 1.60950000e+03, 1.08539715e+01, 3.19771637e+02 ]
      - [ 1362., 9.90773392e+00, 3.44391907e+02 ]
      - [ 1.77150000e+03, 9.76642323e+00, 3.45629517e+02 ]
      - [ 1.82850000e+03, 5.33628845e+00, 3.66658936e+02 ]
      - [ 2061., 5.27520752e+00, 3.81671143e+02 ]
      - [ 1766., 5.60322380e+00, 3.85161469e+02 ]
      - [ 1.86350000e+03, 5.77449036e+00, 3.93379730e+02 ]
      - [ 1.88850000e+03, 5.53174639e+00, 4.01119843e+02 ]
   decision_functions:
      -
         sv_count: 1
         rho: -1.1369150504379039e+01
         alpha: [ 1. ]
         index: [ 0 ]
      -
         sv_count: 1
         rho: -1.1554577306836062e+01
         alpha: [ 1. ]
         index: [ 1 ]
      -
         sv_count: 1
         rho: 3.9225137690510579e+00
         alpha: [ 1. ]
         index: [ 2 ]
      -
         sv_count: 1
         rho: -3.5231418580198168e+00
         alpha: [ 1. ]
         index: [ 3 ]
      -
         sv_count: 1
         rho: -3.8455203152041832e+00
         alpha: [ 1. ]
         index: [ 4 ]
      -
         sv_count: 1
         rho: -3.7854029649673966e+00
         alpha: [ 1. ]
         index: [ 5 ]
      -
         sv_count: 1
         rho: -2.7049915329350687e+00
         alpha: [ 1. ]
         index: [ 6 ]
      -
         sv_count: 1
         rho: -1.6836530022936860e+00
         alpha: [ 1. ]
         index: [ 7 ]
      -
         sv_count: 1
         rho: 4.8761796415635308e+00
         alpha: [ 1. ]
         index: [ 8 ]
      -
         sv_count: 1
         rho: -5.1251546099116272e+00
         alpha: [ 1. ]
         index: [ 9 ]
      -
         sv_count: 1
         rho: -2.7882438394618276e+00
         alpha: [ 1. ]
         index: [ 10 ]
      -
         sv_count: 1
         rho: -5.5646592194485072e+00
         alpha: [ 1. ]
         index: [ 11 ]
      -
         sv_count: 1
         rho: -3.5661748898088628e+00
         alpha: [ 1. ]
         index: [ 12 ]
      -
         sv_count: 1
         rho: 5.5316324818494742e+00
         alpha: [ 1. ]
         index: [ 13 ]
      -
         sv_count: 1
         rho: -5.4887799648645448e+00
         alpha: [ 1. ]
         index: [ 14 ]
      -
         sv_count: 1
         rho: -1.0534197001017567e+01
         alpha: [ 1. ]
         index: [ 15 ]
      -
         sv_count: 1
         rho: -6.1421850536909464e+00
         alpha: [ 1. ]
         index: [ 16 ]
      -
         sv_count: 1
         rho: -3.6633524369076045e+00
         alpha: [ 1. ]
         index: [ 17 ]
      -
         sv_count: 1
         rho: -2.9172390376438369e+00
         alpha: [ 1. ]
         index: [ 18 ]
      -
         sv_count: 1
         rho: -1.5067064868103319e+01
         alpha: [ 1. ]
         index: [ 19 ]
      -
         sv_count: 1
         rho: -3.1327934180203254e+00
         alpha: [ 1. ]
         index: [ 20 ]
      -
         sv_count: 1
         rho: -2.3308756817797223e+00
         alpha: [ 1. ]
         index: [ 21 ]
      -
         sv_count: 1
         rho: 5.6136767070208133e+00
         alpha: [ 1. ]
         index: [ 22 ]
      -
         sv_count: 1
         rho: 4.7396781066066920e+00
         alpha: [ 1. ]
         index: [ 23 ]
      -
         sv_count: 1
         rho: -4.0203812009714728e+00
         alpha: [ 1. ]
         index: [ 24 ]
      -
         sv_count: 1
         rho: -6.3749343801661773e+00
         alpha: [ 1. ]
         index: [ 25 ]
      -
         sv_count: 1
         rho: -3.6880574691558259e+00
         alpha: [ 1. ]
         index: [ 26 ]
      -
         sv_count: 1
         rho: -4.6190616183274081e+01
         alpha: [ 1. ]
         index: [ 27 ]
